digraph Tree {
node [shape=box, fontname="helvetica"] ;
edge [fontname="helvetica"] ;
0 [label="X[33] <= 0.038\ngini = 0.512\nsamples = 31\nvalue = [12, 18, 1]"] ;
1 [label="X[30] <= -0.026\ngini = 0.1\nsamples = 19\nvalue = [0, 18, 1]"] ;
0 -> 1 [labeldistance=2.5, labelangle=45, headlabel="True"] ;
2 [label="gini = 0.0\nsamples = 18\nvalue = [0, 18, 0]"] ;
1 -> 2 ;
3 [label="gini = 0.0\nsamples = 1\nvalue = [0, 0, 1]"] ;
1 -> 3 ;
4 [label="gini = 0.0\nsamples = 12\nvalue = [12, 0, 0]"] ;
0 -> 4 [labeldistance=2.5, labelangle=-45, headlabel="False"] ;
}